digraph Tree {
node [shape=box] ;
0 [label="X[5] <= 0.139\ngini = 0.5\nsamples = 2534\nvalue = [1283, 1251]"] ;
1 [label="X[2] <= 0.074\ngini = 0.073\nsamples = 1233\nvalue = [47, 1186]"] ;
0 -> 1 [labeldistance=2.5, labelangle=45, headlabel="True"] ;
2 [label="X[3] <= 0.434\ngini = 0.5\nsamples = 55\nvalue = [28, 27]"] ;
1 -> 2 ;
3 [label="X[5] <= 0.128\ngini = 0.424\nsamples = 36\nvalue = [11, 25]"] ;
2 -> 3 ;
4 [label="X[2] <= 0.069\ngini = 0.095\nsamples = 20\nvalue = [1, 19]"] ;
3 -> 4 ;
5 [label="gini = 0.0\nsamples = 16\nvalue = [0, 16]"] ;
4 -> 5 ;
6 [label="X[4] <= 0.885\ngini = 0.375\nsamples = 4\nvalue = [1, 3]"] ;
4 -> 6 ;
7 [label="gini = 0.0\nsamples = 1\nvalue = [1, 0]"] ;
6 -> 7 ;
8 [label="gini = 0.0\nsamples = 3\nvalue = [0, 3]"] ;
6 -> 8 ;
9 [label="X[1] <= 0.148\ngini = 0.469\nsamples = 16\nvalue = [10, 6]"] ;
3 -> 9 ;
10 [label="gini = 0.0\nsamples = 3\nvalue = [0, 3]"] ;
9 -> 10 ;
11 [label="X[3] <= 0.23\ngini = 0.355\nsamples = 13\nvalue = [10, 3]"] ;
9 -> 11 ;
12 [label="X[0] <= 0.043\ngini = 0.48\nsamples = 5\nvalue = [2, 3]"] ;
11 -> 12 ;
13 [label="gini = 0.0\nsamples = 2\nvalue = [2, 0]"] ;
12 -> 13 ;
14 [label="gini = 0.0\nsamples = 3\nvalue = [0, 3]"] ;
12 -> 14 ;
15 [label="gini = 0.0\nsamples = 8\nvalue = [8, 0]"] ;
11 -> 15 ;
16 [label="X[1] <= 0.119\ngini = 0.188\nsamples = 19\nvalue = [17, 2]"] ;
2 -> 16 ;
17 [label="gini = 0.0\nsamples = 1\nvalue = [0, 1]"] ;
16 -> 17 ;
18 [label="X[0] <= 0.053\ngini = 0.105\nsamples = 18\nvalue = [17, 1]"] ;
16 -> 18 ;
19 [label="gini = 0.0\nsamples = 1\nvalue = [0, 1]"] ;
18 -> 19 ;
20 [label="gini = 0.0\nsamples = 17\nvalue = [17, 0]"] ;
18 -> 20 ;
21 [label="X[5] <= 0.135\ngini = 0.032\nsamples = 1178\nvalue = [19, 1159]"] ;
1 -> 21 ;
22 [label="X[0] <= 0.097\ngini = 0.016\nsamples = 1110\nvalue = [9, 1101]"] ;
21 -> 22 ;
23 [label="X[2] <= 0.08\ngini = 0.014\nsamples = 1109\nvalue = [8, 1101]"] ;
22 -> 23 ;
24 [label="X[3] <= 0.51\ngini = 0.219\nsamples = 24\nvalue = [3, 21]"] ;
23 -> 24 ;
25 [label="gini = 0.0\nsamples = 21\nvalue = [0, 21]"] ;
24 -> 25 ;
26 [label="gini = 0.0\nsamples = 3\nvalue = [3, 0]"] ;
24 -> 26 ;
27 [label="X[3] <= 0.779\ngini = 0.009\nsamples = 1085\nvalue = [5, 1080]"] ;
23 -> 27 ;
28 [label="X[2] <= 0.097\ngini = 0.007\nsamples = 1069\nvalue = [4, 1065]"] ;
27 -> 28 ;
29 [label="X[0] <= 0.074\ngini = 0.039\nsamples = 152\nvalue = [3, 149]"] ;
28 -> 29 ;
30 [label="X[3] <= 0.559\ngini = 0.026\nsamples = 151\nvalue = [2, 149]"] ;
29 -> 30 ;
31 [label="gini = 0.0\nsamples = 139\nvalue = [0, 139]"] ;
30 -> 31 ;
32 [label="X[5] <= 0.126\ngini = 0.278\nsamples = 12\nvalue = [2, 10]"] ;
30 -> 32 ;
33 [label="gini = 0.0\nsamples = 9\nvalue = [0, 9]"] ;
32 -> 33 ;
34 [label="X[4] <= 0.944\ngini = 0.444\nsamples = 3\nvalue = [2, 1]"] ;
32 -> 34 ;
35 [label="gini = 0.0\nsamples = 2\nvalue = [2, 0]"] ;
34 -> 35 ;
36 [label="gini = 0.0\nsamples = 1\nvalue = [0, 1]"] ;
34 -> 36 ;
37 [label="gini = 0.0\nsamples = 1\nvalue = [1, 0]"] ;
29 -> 37 ;
38 [label="X[1] <= 0.026\ngini = 0.002\nsamples = 917\nvalue = [1, 916]"] ;
28 -> 38 ;
39 [label="X[2] <= 0.115\ngini = 0.083\nsamples = 23\nvalue = [1, 22]"] ;
38 -> 39 ;
40 [label="gini = 0.0\nsamples = 1\nvalue = [1, 0]"] ;
39 -> 40 ;
41 [label="gini = 0.0\nsamples = 22\nvalue = [0, 22]"] ;
39 -> 41 ;
42 [label="gini = 0.0\nsamples = 894\nvalue = [0, 894]"] ;
38 -> 42 ;
43 [label="X[3] <= 0.779\ngini = 0.117\nsamples = 16\nvalue = [1, 15]"] ;
27 -> 43 ;
44 [label="gini = 0.0\nsamples = 1\nvalue = [1, 0]"] ;
43 -> 44 ;
45 [label="gini = 0.0\nsamples = 15\nvalue = [0, 15]"] ;
43 -> 45 ;
46 [label="gini = 0.0\nsamples = 1\nvalue = [1, 0]"] ;
22 -> 46 ;
47 [label="X[3] <= 0.547\ngini = 0.251\nsamples = 68\nvalue = [10, 58]"] ;
21 -> 47 ;
48 [label="X[0] <= 0.051\ngini = 0.036\nsamples = 55\nvalue = [1, 54]"] ;
47 -> 48 ;
49 [label="gini = 0.0\nsamples = 1\nvalue = [1, 0]"] ;
48 -> 49 ;
50 [label="gini = 0.0\nsamples = 54\nvalue = [0, 54]"] ;
48 -> 50 ;
51 [label="X[4] <= 0.942\ngini = 0.426\nsamples = 13\nvalue = [9, 4]"] ;
47 -> 51 ;
52 [label="gini = 0.0\nsamples = 7\nvalue = [7, 0]"] ;
51 -> 52 ;
53 [label="X[2] <= 0.128\ngini = 0.444\nsamples = 6\nvalue = [2, 4]"] ;
51 -> 53 ;
54 [label="gini = 0.0\nsamples = 4\nvalue = [0, 4]"] ;
53 -> 54 ;
55 [label="gini = 0.0\nsamples = 2\nvalue = [2, 0]"] ;
53 -> 55 ;
56 [label="X[5] <= 0.148\ngini = 0.095\nsamples = 1301\nvalue = [1236, 65]"] ;
0 -> 56 [labeldistance=2.5, labelangle=-45, headlabel="False"] ;
57 [label="X[2] <= 0.098\ngini = 0.464\nsamples = 123\nvalue = [78, 45]"] ;
56 -> 57 ;
58 [label="X[3] <= 0.116\ngini = 0.224\nsamples = 78\nvalue = [68, 10]"] ;
57 -> 58 ;
59 [label="gini = 0.0\nsamples = 2\nvalue = [0, 2]"] ;
58 -> 59 ;
60 [label="X[1] <= 0.137\ngini = 0.188\nsamples = 76\nvalue = [68, 8]"] ;
58 -> 60 ;
61 [label="X[0] <= 0.068\ngini = 0.48\nsamples = 5\nvalue = [2, 3]"] ;
60 -> 61 ;
62 [label="gini = 0.0\nsamples = 3\nvalue = [0, 3]"] ;
61 -> 62 ;
63 [label="gini = 0.0\nsamples = 2\nvalue = [2, 0]"] ;
61 -> 63 ;
64 [label="X[2] <= 0.057\ngini = 0.131\nsamples = 71\nvalue = [66, 5]"] ;
60 -> 64 ;
65 [label="gini = 0.0\nsamples = 40\nvalue = [40, 0]"] ;
64 -> 65 ;
66 [label="X[4] <= 0.911\ngini = 0.271\nsamples = 31\nvalue = [26, 5]"] ;
64 -> 66 ;
67 [label="X[0] <= 0.053\ngini = 0.486\nsamples = 12\nvalue = [7, 5]"] ;
66 -> 67 ;
68 [label="X[2] <= 0.057\ngini = 0.219\nsamples = 8\nvalue = [7, 1]"] ;
67 -> 68 ;
69 [label="gini = 0.0\nsamples = 1\nvalue = [0, 1]"] ;
68 -> 69 ;
70 [label="gini = 0.0\nsamples = 7\nvalue = [7, 0]"] ;
68 -> 70 ;
71 [label="gini = 0.0\nsamples = 4\nvalue = [0, 4]"] ;
67 -> 71 ;
72 [label="gini = 0.0\nsamples = 19\nvalue = [19, 0]"] ;
66 -> 72 ;
73 [label="X[1] <= 0.108\ngini = 0.346\nsamples = 45\nvalue = [10, 35]"] ;
57 -> 73 ;
74 [label="X[3] <= 0.587\ngini = 0.298\nsamples = 11\nvalue = [9, 2]"] ;
73 -> 74 ;
75 [label="gini = 0.0\nsamples = 1\nvalue = [0, 1]"] ;
74 -> 75 ;
76 [label="X[3] <= 0.779\ngini = 0.18\nsamples = 10\nvalue = [9, 1]"] ;
74 -> 76 ;
77 [label="gini = 0.0\nsamples = 9\nvalue = [9, 0]"] ;
76 -> 77 ;
78 [label="gini = 0.0\nsamples = 1\nvalue = [0, 1]"] ;
76 -> 78 ;
79 [label="X[0] <= 0.078\ngini = 0.057\nsamples = 34\nvalue = [1, 33]"] ;
73 -> 79 ;
80 [label="gini = 0.0\nsamples = 32\nvalue = [0, 32]"] ;
79 -> 80 ;
81 [label="X[2] <= 0.124\ngini = 0.5\nsamples = 2\nvalue = [1, 1]"] ;
79 -> 81 ;
82 [label="gini = 0.0\nsamples = 1\nvalue = [1, 0]"] ;
81 -> 82 ;
83 [label="gini = 0.0\nsamples = 1\nvalue = [0, 1]"] ;
81 -> 83 ;
84 [label="X[4] <= 0.908\ngini = 0.033\nsamples = 1178\nvalue = [1158, 20]"] ;
56 -> 84 ;
85 [label="X[3] <= 0.082\ngini = 0.004\nsamples = 894\nvalue = [892, 2]"] ;
84 -> 85 ;
86 [label="X[0] <= 0.03\ngini = 0.5\nsamples = 2\nvalue = [1, 1]"] ;
85 -> 86 ;
87 [label="gini = 0.0\nsamples = 1\nvalue = [1, 0]"] ;
86 -> 87 ;
88 [label="gini = 0.0\nsamples = 1\nvalue = [0, 1]"] ;
86 -> 88 ;
89 [label="X[5] <= 0.148\ngini = 0.002\nsamples = 892\nvalue = [891, 1]"] ;
85 -> 89 ;
90 [label="X[5] <= 0.148\ngini = 0.32\nsamples = 5\nvalue = [4, 1]"] ;
89 -> 90 ;
91 [label="gini = 0.0\nsamples = 4\nvalue = [4, 0]"] ;
90 -> 91 ;
92 [label="gini = 0.0\nsamples = 1\nvalue = [0, 1]"] ;
90 -> 92 ;
93 [label="gini = 0.0\nsamples = 887\nvalue = [887, 0]"] ;
89 -> 93 ;
94 [label="X[3] <= 0.423\ngini = 0.119\nsamples = 284\nvalue = [266, 18]"] ;
84 -> 94 ;
95 [label="X[0] <= 0.048\ngini = 0.444\nsamples = 15\nvalue = [10, 5]"] ;
94 -> 95 ;
96 [label="gini = 0.0\nsamples = 9\nvalue = [9, 0]"] ;
95 -> 96 ;
97 [label="X[1] <= 0.154\ngini = 0.278\nsamples = 6\nvalue = [1, 5]"] ;
95 -> 97 ;
98 [label="gini = 0.0\nsamples = 1\nvalue = [1, 0]"] ;
97 -> 98 ;
99 [label="gini = 0.0\nsamples = 5\nvalue = [0, 5]"] ;
97 -> 99 ;
100 [label="X[5] <= 0.15\ngini = 0.092\nsamples = 269\nvalue = [256, 13]"] ;
94 -> 100 ;
101 [label="X[5] <= 0.149\ngini = 0.391\nsamples = 15\nvalue = [11, 4]"] ;
100 -> 101 ;
102 [label="X[0] <= 0.081\ngini = 0.153\nsamples = 12\nvalue = [11, 1]"] ;
101 -> 102 ;
103 [label="gini = 0.0\nsamples = 10\nvalue = [10, 0]"] ;
102 -> 103 ;
104 [label="X[3] <= 0.681\ngini = 0.5\nsamples = 2\nvalue = [1, 1]"] ;
102 -> 104 ;
105 [label="gini = 0.0\nsamples = 1\nvalue = [0, 1]"] ;
104 -> 105 ;
106 [label="gini = 0.0\nsamples = 1\nvalue = [1, 0]"] ;
104 -> 106 ;
107 [label="gini = 0.0\nsamples = 3\nvalue = [0, 3]"] ;
101 -> 107 ;
108 [label="X[1] <= 0.024\ngini = 0.068\nsamples = 254\nvalue = [245, 9]"] ;
100 -> 108 ;
109 [label="X[0] <= 0.082\ngini = 0.32\nsamples = 10\nvalue = [8, 2]"] ;
108 -> 109 ;
110 [label="X[5] <= 0.172\ngini = 0.444\nsamples = 3\nvalue = [1, 2]"] ;
109 -> 110 ;
111 [label="gini = 0.0\nsamples = 2\nvalue = [0, 2]"] ;
110 -> 111 ;
112 [label="gini = 0.0\nsamples = 1\nvalue = [1, 0]"] ;
110 -> 112 ;
113 [label="gini = 0.0\nsamples = 7\nvalue = [7, 0]"] ;
109 -> 113 ;
114 [label="X[0] <= 0.075\ngini = 0.056\nsamples = 244\nvalue = [237, 7]"] ;
108 -> 114 ;
115 [label="X[0] <= 0.075\ngini = 0.106\nsamples = 125\nvalue = [118, 7]"] ;
114 -> 115 ;
116 [label="X[1] <= 0.13\ngini = 0.092\nsamples = 124\nvalue = [118, 6]"] ;
115 -> 116 ;
117 [label="X[1] <= 0.103\ngini = 0.308\nsamples = 21\nvalue = [17, 4]"] ;
116 -> 117 ;
118 [label="gini = 0.0\nsamples = 14\nvalue = [14, 0]"] ;
117 -> 118 ;
119 [label="X[1] <= 0.113\ngini = 0.49\nsamples = 7\nvalue = [3, 4]"] ;
117 -> 119 ;
120 [label="gini = 0.0\nsamples = 2\nvalue = [0, 2]"] ;
119 -> 120 ;
121 [label="X[0] <= 0.069\ngini = 0.48\nsamples = 5\nvalue = [3, 2]"] ;
119 -> 121 ;
122 [label="gini = 0.0\nsamples = 2\nvalue = [2, 0]"] ;
121 -> 122 ;
123 [label="X[1] <= 0.115\ngini = 0.444\nsamples = 3\nvalue = [1, 2]"] ;
121 -> 123 ;
124 [label="gini = 0.0\nsamples = 1\nvalue = [1, 0]"] ;
123 -> 124 ;
125 [label="gini = 0.0\nsamples = 2\nvalue = [0, 2]"] ;
123 -> 125 ;
126 [label="X[2] <= 0.055\ngini = 0.038\nsamples = 103\nvalue = [101, 2]"] ;
116 -> 126 ;
127 [label="X[2] <= 0.055\ngini = 0.121\nsamples = 31\nvalue = [29, 2]"] ;
126 -> 127 ;
128 [label="X[3] <= 0.55\ngini = 0.064\nsamples = 30\nvalue = [29, 1]"] ;
127 -> 128 ;
129 [label="gini = 0.0\nsamples = 26\nvalue = [26, 0]"] ;
128 -> 129 ;
130 [label="X[1] <= 0.162\ngini = 0.375\nsamples = 4\nvalue = [3, 1]"] ;
128 -> 130 ;
131 [label="gini = 0.0\nsamples = 3\nvalue = [3, 0]"] ;
130 -> 131 ;
132 [label="gini = 0.0\nsamples = 1\nvalue = [0, 1]"] ;
130 -> 132 ;
133 [label="gini = 0.0\nsamples = 1\nvalue = [0, 1]"] ;
127 -> 133 ;
134 [label="gini = 0.0\nsamples = 72\nvalue = [72, 0]"] ;
126 -> 134 ;
135 [label="gini = 0.0\nsamples = 1\nvalue = [0, 1]"] ;
115 -> 135 ;
136 [label="gini = 0.0\nsamples = 119\nvalue = [119, 0]"] ;
114 -> 136 ;
}
